
#ifndef SENTIMENT_MODEL_H
#define SENTIMENT_MODEL_H

const int weights[5000] = { -198, 492, -519, 826, -571, 224, -445, -170, 58, 385, -201, 139, -185, -338, 317, -846, -59, 65, -777, 258, -1475, 315, 221, -84, 31, -280, -3, 448, -306, -41, 574, 320, 20, 8, 1062, -106, -265, -183, -242, -232, -1965, 843, -62, -832, -683, 352, -723, 426, -123, 127, 529, -95, 108, -702, 125, 233, -419, -145, 348, 854, 771, 767, -53, 983, -589, -1074, -34, -95, -723, 1433, -578, 39, -318, -323, 55, 248, 516, 105, 450, 53, -161, 15, -122, 736, -574, -426, 868, 577, -774, -205, -551, -58, -652, -240, -346, -428, -840, 92, -269, 525, -61, 354, -228, -24, -92, -927, 402, 514, -436, -505, 188, -948, 550, 323, 67, -523, 329, -60, -523, -17, 387, 330, 1112, -145, -567, -1409, 2481, -67, 261, 1160, -488, -322, 816, 1735, 325, -1078, -1127, 3537, 190, 408, 245, 184, -65, 91, 521, -756, 6, 346, -140, 191, -338, 225, -660, 252, 300, 237, -6, -281, 494, 709, 1301, 347, -609, 427, 74, -299, -188, 579, 287, 692, -772, -26, -3487, -886, -79, -462, -48, 169, -367, -993, 39, -440, 549, 234, 494, 781, -81, 55, 27, 81, -2075, 800, -396, 542, -1018, -415, -1549, -1875, -745, -1222, 81, 420, -137, 2345, 615, 760, 458, 764, -540, -213, -85, -17, -562, 104, -443, -797, 343, 318, -581, -593, 322, 122, -185, 153, 217, 662, -329, -107, 96, 638, 58, -87, 290, -582, 88, -291, -981, -136, -1107, -659, -397, -1447, -117, -10, 346, -309, -161, -38, -102, 70, -445, 293, 128, 40, -556, 207, 1049, 504, 503, -446, -172, 12, 880, 2025, -99, -969, -88, -441, -2599, -110, 816, 717, 595, -97, -939, -264, -258, -58, -1012, -194, 822, 285, 510, 241, 620, 199, 670, -186, -627, 1441, -1, -513, -2983, -6412, 140, -428, 267, 267, 809, -712, 439, 1708, -443, -384, -54, 205, 145, 39, 167, -465, 175, -128, 132, -85, -299, -6099, 18, -3071, -453, -89, -316, 236, -132, 766, 755, -1476, -38, -26, 1, -530, 264, -208, -442, -157, 77, 760, -1328, -257, 238, -605, -21, -75, -490, 335, -46, -611, -214, -1772, -111, -293, -500, -453, -895, -146, 353, 218, 310, 461, 186, -778, 390, -371, 218, 100, -439, -107, 18, -57, -78, 238, 3465, 231, 377, -710, -96, 71, 159, -495, -252, 481, -870, -411, -43, 82, 72, 51, -335, 78, -1004, -188, -143, -247, -188, 533, 125, 401, 28, 143, 158, -776, -273, 73, 102, -266, 4022, 138, -57, 428, -1641, 85, -137, 116, -208, -111, -375, -33, -441, -17, -653, -66, -54, -489, 1162, 49, -359, -533, -222, 165, 207, -153, -11, 2661, -523, -37, -272, 296, -1230, -657, 220, 338, -1397, -408, 761, -950, -1587, -392, 303, -904, -325, 576, -544, 602, 283, 712, -43, 1434, -539, -49, -812, -411, -2, 640, -613, 159, 166, 238, -121, -662, -672, -7, -121, 22, -121, -649, 218, 10, -60, -1017, -411, -456, 949, 117, 114, 339, 55, -266, -912, -645, -190, 606, -66, -5248, -1150, -302, 597, -591, 485, 276, -2157, -83, -1035, -141, -94, 694, 1482, 57, -252, -860, 388, 974, 427, -827, 272, 504, 463, -1403, -90, -380, 47, 975, 573, 885, 629, 266, -93, 53, 66, 38, 357, 1001, 37, 180, 249, 769, -57, 314, -155, -254, -575, -320, 324, 3398, 1210, 513, -176, 92, -118, -78, -453, -37, -104, 336, -358, -667, 38, 113, 238, 457, 692, 791, 715, -41, 97, 376, 30, 872, 100, -176, 962, -118, -433, 940, -359, 76, 274, 841, 613, 571, -352, 112, 172, -278, 491, 187, 445, -1906, -255, -148, -597, 443, -20, 253, -242, -403, 757, 616, 178, 331, -25, -277, -4, 83, -587, 1051, -167, 111, -255, -389, -104, -63, -166, 149, -153, 114, -916, 394, -96, 304, -349, -1032, 100, 705, 172, 207, -530, 235, 542, 342, -618, 72, 55, 405, -798, 377, -799, -113, -157, 11, 107, -242, -2, 606, -575, 762, 1532, -964, 202, -1010, -831, -577, 562, -82, 120, -845, 180, 675, -890, 64, 101, 540, 267, -592, 1381, 862, 32, -587, -375, -40, -511, -94, 560, 135, 79, -111, 1325, 205, -9, 605, -11, -164, -298, -322, -82, 1401, 222, -54, 500, -18, 134, 129, 395, -669, -363, 195, -497, 344, -565, 415, -82, 808, -280, 1465, 700, 277, -1079, 11, -153, 166, 803, 1063, -120, -46, 787, 746, 198, -1099, 223, -831, 120, -445, -21, -114, -151, 42, -76, 229, -941, 703, -161, 77, 1181, -594, 1049, 502, 358, -1817, -628, 665, 233, 761, -1095, -144, -53, 119, 927, -413, -248, -171, -1309, -44, 659, -196, 621, -30, -710, 1162, 297, 340, -83, 821, -150, -737, -94, -435, 279, 136, -438, -310, -237, -388, -437, 604, -1988, -52, 306, -1130, -128, 115, -166, -363, -371, 86, -410, 584, 550, -339, -89, 206, -219, -231, -54, 773, 375, 227, -82, -88, -548, 451, 527, 527, 88, 12, 76, 2172, -706, -485, 199, 552, -55, -57, 390, 148, 660, -2111, 280, 265, -64, 347, -23, 168, -10, 336, -532, -33, 10, -216, -636, 613, 358, 190, 108, -604, 102, -441, -370, -662, -446, -605, 281, -1031, -70, -517, 593, -340, -61, 167, 98, -606, -445, -123, 363, -167, 567, 491, 160, 398, 130, -790, 632, 665, 891, 387, 456, 939, -17, -32, 234, 241, 691, 629, -915, 848, 340, -240, 122, 897, 596, -160, -340, 53, 472, -437, -217, 505, 252, 551, 170, 909, -406, -474, -6, 700, 1101, -1302, 1258, 218, 261, -578, 350, 340, 114, 58, 358, -147, 438, 108, -767, 222, -1088, -370, 351, -347, -402, -70, 15, -282, -655, 562, 244, -142, -416, 165, -1281, 330, -638, -100, -372, -151, -45, -67, 32, -444, 236, -115, -109, 115, -518, -728, 199, 25, 126, -34, 225, 77, 443, -97, 239, -475, 354, -105, -461, -708, -216, 317, 126, -129, 1063, 177, -1090, 342, 258, -379, 452, 212, 174, -15, 290, -464, 311, -418, 702, 2, 1509, -446, -238, 608, 578, 284, 53, 87, -124, 472, -176, 260, -417, 65, -265, -5, -609, -500, 3, -2267, -256, -49, 182, 180, 652, -186, 366, -591, 841, 870, 800, 388, 143, -535, 203, 2, 109, 1093, 489, -2439, -1441, -215, 474, -387, -385, -201, 175, 288, 552, -29, 277, 344, -335, -1275, -819, -478, -81, 109, 281, 1250, 698, 588, -204, 97, -9, 82, 888, -59, -680, 394, -350, 52, -80, -117, 84, 261, -412, 36, 143, 127, 46, -450, 178, 527, 107, -510, -2, -154, 568, 18, -745, -613, -104, 258, 358, -395, 120, 306, 106, 171, 18, -625, -337, -427, 254, 367, 603, 264, 29, -620, 427, 452, 211, -481, -23, -1119, -111, 467, -292, -91, 118, 83, 695, 618, 129, 394, 556, 863, 378, 474, 489, -523, 288, -322, -239, -898, 325, 704, 758, 149, 510, 1493, 413, 139, -504, -244, -384, 1793, 359, 17, -750, -833, 290, -232, 457, 566, 48, -644, -258, -1495, -1, -285, 346, -387, -361, 39, -129, 290, 105, 299, 325, 536, 1212, 113, -184, -164, -397, 309, 978, 2998, -772, 407, -242, -297, 244, 125, 1005, 2416, 591, 660, 110, 453, 65, 33, 147, 217, -240, 375, 211, 555, 427, 239, 158, 216, 295, 150, -545, 116, 258, 319, 172, -646, -443, -490, 48, 233, 195, -102, 551, -726, 458, 352, -673, -221, -207, 132, 573, 156, -1064, -156, 246, 307, 466, 177, 784, 514, -608, -337, 33, -909, 185, -400, -749, -140, -357, 695, 196, 35, 792, 376, -415, 1399, 211, 597, -78, 238, 112, 496, -184, 53, -1025, 782, -335, -727, -978, -366, -235, -1819, -108, -398, 986, -212, 751, 50, -4822, -946, -130, -405, 533, -426, 1676, 85, 632, 296, -748, -219, -1350, 257, -1071, -366, -238, 989, -145, 257, -440, -186, -34, -147, 287, 70, -216, -335, -404, -65, 391, 209, -465, -67, 749, -147, 211, 107, 600, 368, -246, 77, 145, -16, 246, -509, -687, -226, 368, 621, 737, -84, 344, 93, -367, -444, 341, -121, -628, 64, -289, -69, 522, 489, 456, -1118, -664, -664, -403, -795, -816, -383, -256, 251, 321, 294, 514, 430, -1498, 1325, -790, -894, 133, 545, -1274, -252, -598, -282, -606, -1164, 972, -239, -343, -699, 48, -1, -305, 139, -270, -44, -412, -183, -418, -496, -518, 23, 423, 342, -432, -4270, -1857, -412, 346, -221, -471, -197, 106, -65, 1263, -60, 137, 178, 387, -637, -312, -702, 98, 83, 419, 474, -335, -240, 237, 1597, 182, 1049, -327, -44, 543, -376, -140, 404, 428, -72, 238, -476, 561, 1186, -15, 7, 1392, -621, -16, -844, -7, 867, 285, 618, -1706, -440, -598, 394, 387, 498, -1640, 65, 100, 570, 330, -120, -217, 266, 341, 627, 215, 490, -318, 89, -205, 90, -334, 226, -1223, -960, -1164, 1100, 270, 230, -3019, 367, 251, -91, -31, 422, 1340, -486, -239, -117, -51, -38, -628, -18, -968, 72, 299, 700, -125, -187, 73, 386, -1096, -220, -651, -197, 457, -175, 174, -803, 334, 652, 319, 429, 429, 4363, -366, -106, 173, -2004, 719, 380, 260, -1, 356, 2613, 565, 144, -229, -1786, 82, -451, 14, -229, 575, 261, 1202, 478, 131, -244, -344, -203, 512, 354, 484, -7, -587, 279, 2350, 452, 575, 97, -293, 546, -184, -446, -183, -351, -19, 117, 206, 75, 445, -124, 391, -64, -309, -225, -2729, 594, -204, 259, -679, -66, 992, 1336, 233, 401, -555, -344, -114, -61, -1, 294, -457, -80, -257, 65, -911, 6205, -1377, -216, -1, -182, -321, -1740, -202, -303, 14, -23, -586, -685, -49, 104, 931, -161, -301, 255, -222, 277, 110, 542, -359, -1211, 736, 250, -472, 622, 575, 104, -594, 219, -365, 372, -367, -106, 83, -163, 532, 1423, -270, 1026, 291, -96, 1116, 313, 61, -62, 18, 433, 577, -173, -3982, -1211, 119, -662, 8, -6, 215, -1431, 51, -1135, 16, -536, 338, 1150, 638, 688, 775, 170, -201, 183, 3039, -1561, -376, 73, 38, -515, -141, -232, 1864, -20, 257, -379, -314, -510, -92, 176, 704, 513, -1036, 4535, -548, 1608, -154, -178, 299, -58, -17, 655, -160, -291, 695, 337, 825, -662, 454, -1180, -452, 50, -318, 57, -51, -1019, 701, -475, -412, 181, 191, -147, 38, 961, -144, -7, 18, -63, -172, -307, -371, 128, -577, -407, 385, -899, -841, 177, 615, -378, 102, 1083, 1453, 1807, 0, -39, -287, -95, -254, 757, -226, 477, 567, 577, -434, 272, -629, 10, -327, 169, -70, -331, -709, -180, -1800, -181, 1308, 1371, 21, 5, -532, -504, -782, 645, -222, -195, 499, 286, -220, 10, -894, 65, 584, -556, -294, -240, 850, 44, 243, -246, 171, -220, 232, 135, 160, 522, -97, -420, -213, -110, -1009, -154, 599, -446, 110, -309, -381, 512, -297, -1899, -179, -80, -318, -200, 398, -6, -167, -414, 2, 136, 478, -1205, -409, 1, 41, -384, -55, -744, 229, 0, -153, 270, 682, 135, -550, -410, -48, -160, 632, -338, -115, -1054, 258, -232, -62, 32, -570, 1436, 580, -258, 388, 56, 1233, 145, -603, 1015, 530, 1462, 364, 492, -92, -263, 215, 297, 277, -157, 346, 33, -450, 251, 701, 464, 226, 3415, -224, -663, -191, 0, 395, 245, 2232, -8, 68, -611, 1539, 323, -325, -66, 178, -555, -1483, -451, -373, -49, 160, 151, 885, 1090, 128, 536, -94, -1977, 608, -44, -63, -175, 176, 31, -48, -123, -584, -649, 196, -69, 2347, 241, 330, -1239, -277, 239, 1383, 1481, 500, 260, 768, -136, 706, 218, 43, 294, 13, 268, -176, -321, 437, -946, 242, -272, 39, 689, 279, -490, -120, 238, -97, -496, 330, -638, 1374, 272, 433, -217, 151, -66, 230, -628, 79, 207, -341, 377, 619, -141, -529, 125, -962, -34, -899, -874, -57, -274, 263, -46, 110, 937, 140, -252, 2159, 207, -160, 82, -913, 792, 314, 36, 342, -197, 25, 759, 142, -76, -1993, 696, 422, -188, 104, 986, -35, -62, -14, 378, -1, 4, -247, -160, -685, -646, 518, 5821, 373, 1541, 369, 165, 89, 631, 683, 246, 118, -186, -47, -270, -100, 94, 1044, 153, 477, 1256, 1063, -555, -678, 141, -34, -763, 603, 98, 252, -83, 254, 87, 152, -1806, -62, 308, 586, -154, 234, 120, -865, 1074, -111, 582, 249, -530, 711, -459, -147, -697, -915, -454, 215, -918, 319, -1928, -631, 797, 734, -132, -904, -324, 349, -299, -477, 394, -862, -112, -720, 343, -240, -60, -118, -340, 1256, 120, -326, -358, -153, 201, -223, -1331, -288, -230, -149, -711, 692, -404, 836, 268, 912, -279, 143, -291, -8, 1576, 475, 477, 189, -749, -590, 178, 578, -293, -396, 198, 62, 2178, 148, 835, 461, 261, 406, -401, -181, 24, -107, 88, -499, 241, 93, -455, -338, 207, -158, 623, 332, -51, 639, -527, -178, 237, -374, 226, 93, 54, 104, 156, 740, 40, -499, 28, 1151, 189, 3338, -310, -106, 372, 2566, -683, -203, -184, 78, -805, -702, 1173, -283, 863, -88, -656, 529, -717, 720, -204, 264, 39, -290, -419, 488, -883, 157, 866, -121, -110, 381, -114, 598, -79, -60, 803, 136, -1455, 810, 156, 273, 277, 962, -121, 204, 212, -475, -173, -577, -335, 342, -117, -289, -474, -4172, -706, -267, -127, -1015, -84, -493, -139, -490, -61, 771, 84, -1199, 383, 152, 121, 400, -851, -171, 219, 296, 185, -653, 239, -732, -218, -309, 1433, -147, -110, 970, 1094, -243, 444, 88, 714, -344, -386, 197, -462, -185, 1050, -1284, 87, 204, -154, 698, 429, 262, -2324, 1018, 224, 355, -294, -1436, 61, 55, -803, -968, 82, -1055, 165, -441, 531, 503, -197, -455, 308, 334, 95, -484, -332, 719, 253, 193, -78, 67, 771, 116, -452, -211, 290, 984, -119, 59, -162, 1082, -80, -392, 110, 72, -601, -570, -698, -662, 60, -237, -96, 582, 141, -1420, -851, -863, -587, 215, -524, 167, 107, 1184, 443, 209, 743, 471, -788, -536, -196, 198, -550, -846, 176, -836, 101, -827, 76, -142, -462, -297, 1071, 56, 1009, 625, 160, 565, -232, -44, 254, 632, -559, 283, 14, 221, -144, 1516, -214, 555, 25, 30, 456, 228, -841, -25, -79, 860, 226, -168, 424, 284, -3305, 612, -235, 65, 110, -2678, -92, 846, -279, 434, -219, 983, -580, 934, -1131, 485, 89, 648, 67, 1011, 576, -672, 309, 244, 354, 433, -231, 666, -198, 448, -501, -205, 14, 28, -664, 699, 176, 419, -117, 758, 19, -505, -1331, -490, -55, -913, 211, -295, 338, 372, 586, 356, 109, 88, 1224, -204, 1134, 756, -229, 78, 796, -235, -128, -101, 304, 557, 307, 398, -349, -125, -186, -157, 50, -7, 89, 64, 526, 411, 903, 39, -186, -822, 42, -265, 1058, 223, 83, -644, 462, -815, 377, -482, -264, 434, 776, 356, 541, 2087, 390, -186, -154, 480, 207, 470, -308, -5, -1385, -378, 327, 578, -707, -278, 329, -571, -318, 1632, 659, 492, 718, 389, 87, 448, 258, 784, 621, 306, 251, -394, 107, -222, -147, -1252, 488, 0, -137, -218, -383, 179, -515, 94, 293, -198, -277, 2, -654, 327, -974, 346, 1196, -123, 954, 405, 715, -132, 196, -34, -391, 292, -747, 186, -875, 306, 818, -373, -1032, -328, 236, -891, -687, -347, 376, 539, -18, -63, -533, 917, 457, -17, 395, -350, 33, 120, 300, 538, -84, 370, 514, 100, -83, 397, 955, -435, 1050, 1115, 700, 323, -216, -96, -296, 323, -3225, -787, 472, 102, -51, -399, -166, -3341, -211, 17, -615, 385, -290, -137, 534, 1015, -99, 489, 21, 700, 906, 1451, -44, -169, 11, 439, -2311, 73, -135, -675, -368, -307, 459, 196, -135, -343, 602, 133, 662, -809, -82, -195, 182, 187, -556, -447, 1225, -2539, -34, 243, -391, -133, -1262, -1519, 5, 12, -4, -183, 498, 16, -1033, 529, 501, 445, 839, -2, -24, 188, -328, -331, -346, 169, -883, -491, 558, -194, -1498, -265, 366, 761, 218, 316, -444, 488, 117, -797, 2265, -729, 347, -308, -266, 274, 291, 824, -42, 313, 1082, -168, 1004, -367, -650, -766, 99, 281, 270, 183, 65, -33, 268, -698, 374, -227, 320, -342, -348, 654, 456, 805, -385, -388, 23, -33, -534, 21, -140, -30, -362, -469, 764, -871, 845, 328, 24, -179, 425, -2776, -307, 125, 147, 157, -545, -513, -572, 1026, -478, -335, 551, -187, -1992, 666, 4025, 663, -1060, -57, -569, 98, 109, 777, 14, -115, 189, 382, 544, -1652, -558, 47, -174, 671, 598, -647, -495, -256, 19, -82, -311, 851, 633, -557, 53, 209, -197, -147, 776, 762, -247, -80, -447, -397, -47, 1053, 336, 1427, 40, -430, -825, 104, 642, 505, -824, -645, -1251, -538, -734, -213, 662, -509, 1042, 866, -82, 459, 97, 70, -97, 437, 146, -442, -480, -247, 406, -43, 264, -410, 760, 485, 307, -20, 419, 121, -317, -106, 344, -209, -5, 213, 761, 76, 41, -682, 1650, 864, -945, 231, 76, -300, 1169, 1714, 680, 832, -381, -996, 552, -284, 420, 382, 1115, 25, 893, 514, 1293, -1388, -66, 442, 785, 735, 610, -112, -830, -831, -282, -293, -586, -168, 34, -620, -221, 549, -458, -2017, -408, 951, -190, 270, 125, -345, 243, -361, -49, -917, 973, 976, 776, -62, -757, -858, -86, -644, -540, -334, -330, -107, 589, -3338, 458, -351, 225, 740, 58, -77, -127, 816, -547, 121, -180, 246, 241, 282, -173, -32, -816, 354, -1605, 89, 471, -554, -97, -1409, 1052, -142, -454, 240, 364, -541, 76, -239, -87, -979, -62, -441, 703, -199, -261, -123, 104, -38, 499, -218, -3064, 160, -107, 398, -1664, -1010, -309, -126, -357, -475, 381, -529, 615, -786, 237, 276, -30, 387, 168, -416, 344, 8, 420, -36, -231, 5, 106, -267, 43, -383, 9, 776, 309, 1058, 50, 320, -456, -375, 71, -30, -2688, 34, -111, -1154, 186, -923, -723, -72, 574, 598, 158, -32, -124, 842, -13, -337, 480, -72, 279, 272, -716, 1, -737, -26, 50, -570, -510, -708, -484, 59, -162, 112, 529, -867, 1388, 157, -155, -557, -778, -2099, -352, -1137, -885, 238, 185, 373, -691, -336, 831, 308, -52, -1049, 127, 69, 609, 340, -469, 454, -364, -400, -280, 298, 141, 87, 311, 186, 142, 240, -118, -570, -967, 1169, -245, -439, 58, -599, -635, 580, 511, 242, 243, 1133, -789, 335, 379, -418, 349, 62, -195, -113, 677, 521, 1097, 189, 209, 524, -192, -15, 501, 265, 747, -46, -204, 356, -1587, 88, -382, -106, -76, -693, 428, -159, 119, 88, 184, -13, -23, 792, 342, -161, -124, 304, -56, -707, -9, 185, 1649, 153, -67, 188, 474, 59, 176, 173, 319, -414, 252, 613, -99, -346, -196, 265, -726, -48, 1923, -144, -69, 412, 46, -487, -2256, 159, -1311, -627, -296, 922, 23, 29, -50, -558, -65, -179, -170, 854, -116, -4117, 946, -398, 98, 860, -507, 957, -1341, -45, -43, -373, -1732, -485, 446, -69, -30, -256, -599, 188, -551, -322, 164, -1391, 80, 303, 560, 35, 364, -1469, -778, 311, 171, 28, 98, -178, -25, -180, -380, -8, -354, -1285, 75, -36, 785, 1634, -2949, 367, -1947, -1880, 485, -1021, 427, 308, -563, 20, 171, -647, 85, -293, 207, 188, -403, -354, -853, 468, 209, -516, -190, 619, -31, 119, -134, -510, 192, -499, -87, -405, 56, -1772, 659, 434, 61, 882, 536, 1225, -1688, -252, -301, 437, -420, -655, -164, -320, 233, -155, -161, -253, -130, 2072, -999, 1028, 761, -180, -373, -776, 960, -852, 741, -144, -694, 217, 549, 190, 733, -269, 339, 335, -196, -590, 830, -1461, -1238, -606, 451, -492, -19, 83, 491, -322, -158, 673, -197, -259, 528, 696, -248, -1132, -1030, -88, 18, 336, 619, 140, 449, 146, -394, 293, -321, -437, 255, 292, 369, -54, 289, 316, 304, -11, -931, -182, -96, 254, 456, 10, -590, 374, -2532, 2, 649, 283, 279, 199, -228, 1114, 251, 842, -356, 1065, -533, -162, 564, 0, -55, 405, 150, 152, -255, 60, 221, -27, -462, 56, 416, 5066, 2182, 1843, -447, -213, -359, 362, -18, 74, 597, 103, 290, 0, 84, 177, 674, 25, 82, 424, -600, -13, 135, 365, 448, -431, 664, -52, 266, -415, -91, -711, -240, -88, -12, -601, 27, 70, 519, 314, 164, -513, -220, -201, -325, -979, 676, -485, -296, 204, 190, 280, 509, -586, 650, 358, 278, -138, -1041, 254, -806, 323, -96, -698, 50, -61, 618, -340, -642, -345, 592, 1447, 916, 1373, 333, -883, -1968, -625, -102, -124, 714, 13, 155, 625, -1050, -2935, 343, -215, -86, -70, 1264, 8, 525, -71, 144, 305, -96, -116, -558, -503, -304, -4940, -3877, 270, -291, -520, 170, 13, -553, -290, -287, 812, 1125, -529, 720, -1020, -470, -573, -76, 188, 318, -1659, -12, 62, -70, 345, 1292, 1025, -464, 62, -288, -444, 565, -107, -124, -364, -358, 510, -130, -141, -2369, -170, -288, 514, 283, -31, -1397, -353, -947, -499, -373, 849, 295, 581, -143, 202, 352, -796, -564, -118, -1909, -192, -614, -72, -97, -1, 201, 534, 419, 44, -627, 321, 77, 46, 29, 1425, 686, 276, 754, 513, 46, 350, 91, 235, -284, 207, -1585, -344, -671, 249, -66, -815, -759, 243, -140, 224, 3, -316, -71, 311, -633, 116, 230, -518, -888, 412, -1446, -704, -619, -227, -1056, -178, -1347, -667, -378, 0, -639, 335, 178, 71, -274, 235, 209, 476, 350, 82, 1089, 362, 772, 11, -761, 419, 351, -465, 58, 453, 206, 62, -237, -430, 295, -853, 817, 140, -171, -399, -209, 357, -136, -275, -470, 419, 219, 443, -403, -336, 332, 360, 519, 385, 369, 50, -286, -453, -89, 287, -253, -205, -860, 1628, 118, 23, 832, 1293, 693, 2, -74, 209, -373, 438, -948, -414, -296, 921, -228, 341, 399, -443, 924, -6, -278, -812, 1260, -225, 468, 161, -103, -402, -135, -117, -842, 423, 17, 471, -1093, 473, -24, -254, 2354, -1048, -149, -185, 119, 583, -391, 682, 65, 5, 110, 56, 177, 515, 241, -292, 187, 16, 350, 200, 666, 2168, 369, 243, -191, 289, 81, -2576, 271, 280, -65, 483, 223, 9, -58, 483, -161, 2049, 329, -420, 59, -236, -716, 343, -2159, 459, 0, -722, -231, 89, 80, 632, -70, 783, 2095, 484, -330, -529, -173, -382, 55, 224, -195, -3, 118, 221, -393, -383, -14, 180, 1305, 873, 1237, 295, -109, -417, -250, 20, -392, -731, 207, 89, -311, -1254, 1158, 1057, 575, 405, -1646, -651, -115, 242, -8, -1592, -374, -196, -7, -689, -205, 36, 551, -330, 344, 98, 276, -123, -267, -51, 284, -17, -1043, -760, -480, 621, 323, -191, -236, 12, 338, -222, 55, 453, 303, -219, -886, -62, 1006, 188, 391, -1041, -577, -681, 102, -700, -85, 34, 741, 830, -92, 1204, 349, -604, -180, -568, -72, -969, 123, 200, 328, 164, -711, -40, -83, -173, 597, 651, 530, 208, -355, -120, -366, 1382, -14, -3817, 398, 1575, 137, 229, -1227, -623, -397, 167, -309, 546, -422, 691, 92, 858, 23, -103, 122, -569, -295, -60, -451, -340, 187, 241, -551, 1086, -188, 66, -162, 372, 73, 421, 282, 85, -4, 815, -564, 28, 161, -525, -112, 401, 475, 401, 254, -141, -514, -471, 368, 577, 424, -46, -446, -323, -654, 370, 365, -220, -444, 242, 334, 389, -88, -284, -245, -1325, 578, -289, -1184, 455, 904, 27, -680, -82, 508, 243, 536, -206, -567, 323, 298, 449, 688, -156, 111, -332, -791, -696, -1510, 175, 134, 49, -1523, 504, 331, -614, -521, -389, -350, -532, 38, -137, 276, 69, 275, -368, 19, 486, -1019, -183, 468, 3, 311, -1118, -353, 527, 1505, -390, 351, -3781, 609, -368, 97, 252, 23, 717, -584, 145, -831, 1003, -626, -477, -616, 5, 354, -64, 211, 176, -84, -171, -829, -338, -518, 811, 114, 603, 118, -345, -822, -43, 146, -988, 129, -648, -974, -738, -3146, -262, 625, -2, -417, -1350, -392, -675, 469, 1026, 844, -637, 209, -456, 47, 406, 140, 133, -874, -124, 179, 2051, -728, -111, 389, -2816, -117, 1520, 626, 328, -33, -896, -341, -145, -1265, -659, 88, -206, -3, -662, 304, -683, 200, 1385, 159, 688, -339, 4, 454, 99, 702, -1161, 406, 297, 1525, 119, -133, -1203, -445, 192, -111, -114, -391, 333, -378, 181, 181, 116, -966, 17, -247, 495, -443, 201, 149, -199, 82, 154, -5, -1355, -1021, 321, 183, 1179, -662, 480, 812, 116, -572, 154, 209, -246, 615, -643, -17, -248, -42, -209, -184, 518, -89, -138, 1097, -843, -22, 95, 200, -372, -29, -781, 108, 66, 807, -32, 100, -176, -150, 198, -235, -158, 1032, 289, 416, -538, 964, -535, -250, -110, -777, -789, 294, 514, -103, 183, 937, -177, -413, -641, -295, 329, -102, -2202, -775, 624, -92, 472, 1146, 2459, -1178, 508, -486, -371, 140, -106, 832, 350, 214, 600, -427, -928, 217, -417, 283, 563, 411, 384, -1065, -354, 173, 662, -154, 180, 91, 44, -453, -260, 97, -1551, -163, -961, 923, 94, -611, 149, -281, 37, 176, -453, -30, 201, -1127, -471, 177, 136, -100, 10, -843, -86, 219, 26, -436, -1791, 149, -881, -158, 1134, 348, 664, -58, 242, 576, 510, -90, 677, -954, 169, 194, -214, -628, 279, -168, -483, 152, -911, 692, 66, 773, -149, -138, -354, -58, -648, 1967, 599, -117, -96, -798, 776, -715, -2177, -904, 1450, 1120, -249, 307, -448, 757, -301, -75, 391, 363, -393, -2331, 229, -935, -207, -453, 1090, 42, -1176, 101, -180, 302, 654, 384, 230, -731, 47, -10, 89, -35, -667, -18, 313, -222, -700, 44, 149, -169, -48, 1080, 185, -196, -114, -1264, -877, 278, -626, -312, 317, -84, -51, 95, 1014, 390, -108, 680, 164, -796, -37, -6, 600, 383, 542, 728, -421, -397, -166, 53, -207, 706, 562, 1048, -153, 96, -31, 477, -537, -11, -567, -736, -494, 755, -403, -287, 66, 197, -682, -789, -167, 847, -230, 1027, -351, 215, 1148, 671, -25, -247, -766, 326, 425, -1697, 541, -464, 30, -290, 212, -126, -1012, 124, 1053, -692, 695, -435, 700, 474, -584, -1910, 193, -518, 1600, -1337, -605, 2898, -486, -737, 64, -1235, -1519, 477, -525, -2, -384, -446, 365, 508, -176, -481, -230, 687, 160, -778, -229, -602, 75, -272, -55, 394, 72, 172, -42, 445, -160, 952, 213, -886, -718, -292, -347, -95, -255, 48, 1902, 80, 245, 178, 240, -68, -89, -100, -648, -819, 135, 843, -206, 49, 929, 322, 445, -3395, 377, 270, 97, 303, -613, -230, 535, -74, 81, 662, -820, -64, -337, -34, 1135, 1984, -3, 443, 111, 606, 851, -366, 533, -2415, -490, 75, -813, -266, -254, 42, -32, -288, -21, 89, -307, 366, 481, -632, 99, 88, -153, 359, 601, 291, -42, 17, 735, 3220, 1287, -253, 406, 471, -202, -8, -104, 0, -3748, -1165, 381, -389, 110, 97, -549, 272, 2798, 1680, 925, -28, 1220, -547, -413, 5, 317, 829, -301, 221, -170, 356, -469, -526, 169, 181, 161, 1629, 59, 922, -182, -550, -14, 479, -198, 457, -279, -937, 185, 411, -125, -500, -86, 57, 89, 286, 124, 64, 661, 281, 1279, -1167, -1308, -231, -351, -463, 195, 491, 687, -309, -148, -291, -115, -27, -118, -612, 267, -63, -190, 133, -183, -691, -143, 565, 1310, -334, -137, -500, 496, 571, 276, 530, -1763, -225, 179, -743, 68, 668, 74, 422, -135, -338, 605, 1579, 175, 602, 528, -216, 328, -249, -256, -4756, 1796, 772, -99, 266, -551, -108, 602, -200, 332, -289, 1425, -885, -790, -858, 222, 1317, 18, -390, 18, 609, -134, -1146, -402, 845, -270, -335, -50, -157, 640, 1464, 1119, -635, 125, 360, 18, -890, -383, 757, 1396, -201, 1191, -1204, -411, -244, 175, 616, -263, 325, -687, 238, -45, -370, 267, -112, 1085, -196, -128, -530, 1534, 927, 651, -78, 253, -68, -867, -974, 416, -630, 2734, 1110, -401, 1243, -711, -73, -280, 244, -1072, -95, -761, -435, -123, -125, -118, -14, 199, 1468, 277, 86, -33, -340, 896, -280, -661, 285, 232, 90, -899, -638, -1443, 2253, 671, 65, -210, 144, -54, 147, -544, -37, 200, -521, 172, 45, 934, -177, 788, 1326, 225, 294, 23, 47, 201, -63, 155, 235, 45, -245, 114, 45, -694, -299, 155, -93, 749, -575, 444, 756, 32, -979, 398, 619, 423, -2885, 314, -485, -134, 378, 82, 656, 9, 525, 360, 257, -897, 80, -1235, 398, 105, -371, -279, 225, -222, 2125, 1114, 426, 689, 122, 120, -343, -780, -539, -1522, -174, -225, 328, -580, -618, -77, -21, 3, -34, -182, 1370, 569, -105, -12, 236, -1290, -412, 193, 361, -42, -321, -527, -886, -356, 108, -915, -2113, 226, -346, -1536, 125, 324, -124, 44, 254, 312, -51, 24, 1654, 634, 936, 545, 255, 221, 21, 15, 480, -408, 1313, 335, -247, 170, 572, 1037, -4027, -2427, 8, -334, 25, -663, -1332, -1424, -1697, 45, 2523, 161, -44, 203, -176, -2691, 692, -785, -669, -525, 453, 399, -160, -1041, -119, -451, 377, 507, -250, -332, 1283, -1406, -154, -521, 482, -309, -200, 244, 651, -2, 1251, 296, -515, -754, -33, 744, 22, -350, -982, -263, -695, -135, 367, -515, -422, -59, 116, -494, -716, -92, -1361, -1109, 937, -900, 343, 42, 410, -198, 694, 214, -11, -375, 387, -523, 10, 1071, 627, 310, 439, 60, 582, -109, -187, 16, -270, 1609, -22, -37, 295, -38, -997, 473, 223, 1144, 75, -567, -79, 873, 426, 90, -212, -204, -55, -548, -133, 59, 482, -99, -34, 142, -846, -555, -141, 431, 289, -444, 158, 7, 731, 611, 241, -162, 874, 128, -593, 658, -103, 542, 427, -324, 492, -469, -216, -409, 323, -129, -1259, 45, -224, 717, 130, 692, 239, 733, -1054, 581, -535, -637, -1018, 766, 506, -54, 724, 873, 450, -943, -21, 23, -135, -288, 262, 278, -6722, 240, -1377, -201, 617, 485, 374, 233, 681, -333, -57, -2342, -366, -340, 56, -373, -69, -1012, -182, -73, 417, 145, 317, -63, 764, -588, -308, -23, 415, 3389, -477, 704, -668, -695, -90, 128, 8, -76, -535, -218, -1202, -1264, -549, 101, -572, -408, 377, -337, -93, 369, -462, -593, 362, 916, 233, 245, -40, 425, 318, 921, 812, 172, -73, -448, 52, 289, 222, 492, -19, 172, -107, 487, 371, 73, -36, 12, 640, 724, -10, -50, 84, 423, 244, 94, 48, 50, 257, 546, 1364, -385, 126, -473, -1103, -795, 2168, 394, 190, 168, -202, -1865, -533, 10, -264, 759, 499, 2325, 613, -346, 341, -4239, -503, -8367, 1256, -585, -631, -73, -2350, -182, -273, 102, -687, 770, -890, -417, -661, -2005, -1341, 65, -1165, -849, -535, -154, 42, -143, 155, 80, -83, -1058, 333, -857, 850, -45, -183, -543, -448, 88, 888, 633, 621, -93, 539, -198, -150, -40, -126, 396, -567, 434, -829, -287, 19 };
const int bias = 96;

#endif // SENTIMENT_MODEL_H
